SVM-light Version V6.20
0 # kernel type
3 # kernel parameter -d 
1 # kernel parameter -g 
1 # kernel parameter -s 
1 # kernel parameter -r 
empty# kernel parameter -u 
11 # highest feature index 
44 # number of training documents 
2 # number of support vectors plus 1 
0 # threshold b, each following line is a SV (starting with alpha*y)
1 1:-3.4153578 2:-0.88503742 3:3.702601 4:1.1479436 5:-2.278182 6:-0.84871256 7:1.2963723 8:-0.36285496 9:-0.53629833 10:0.53754544 #
