svm_type c_svc
kernel_type rbf
gamma 0.03125
nr_class 2
total_sv 34
rho -1.25901
label -1 1
nr_sv 17 17
SV
128 1:0.0305284 2:-0.841349 3:0.575676 4:-0.575676 5:0.289903 6:-0.574851 7:0.834961 8:-1 9:0.186246 10:-0.318143 
128 1:0.551044 2:-0.83357 3:0.0739787 4:-0.0739787 5:-0.566108 6:-0.482614 7:-0.408637 8:-0.96125 9:-0.357132 10:-0.175383 
128 1:-0.385049 2:-0.86698 3:0.482289 4:-0.482289 5:-0.464379 6:-0.478249 7:-0.130861 8:-0.976784 9:-0.429523 10:0.277592 
128 1:-0.152659 2:-0.840998 3:0.0824209 4:-0.0824209 5:-0.345801 6:-0.308544 7:-1 8:-0.949805 9:-0.291143 10:0.0532955 
128 1:0.778299 2:-0.87474 3:-0.201107 4:0.201107 5:-0.045841 6:0.0841149 7:-0.00590775 8:-0.970277 9:0.0242555 10:-0.299221 
128 1:0.0976831 2:-0.867721 3:-0.589681 4:0.589681 5:-0.583535 6:-0.199804 7:-0.164234 8:-0.980997 9:-0.250646 10:-0.222667 
126.8958447412613 1:0.0306614 2:-0.813952 3:0.792149 4:-0.792149 5:-0.299235 6:-0.785913 7:0.0375707 8:-1 9:-0.303033 10:-0.359389 
21.30951417457756 1:1 2:-0.842712 3:0.689846 4:-0.689846 5:-0.261936 6:-0.438711 7:-0.0378671 8:-1 9:-0.220045 10:-0.253674 
38.12986725700007 1:-0.0619166 2:-0.841058 3:0.556411 4:-0.556411 5:1 6:-0.88622 7:0.374127 8:-1 9:1 10:-0.112599 
18.74384581725782 1:0.97224 2:-0.844646 3:-0.35393 4:0.35393 5:-0.0833881 6:-0.125577 7:-0.215105 8:-0.977979 9:0.0496498 10:-0.389714 
125.7191642534411 1:0.45998 2:-0.82461 3:-0.82968 4:0.82968 5:-0.513558 6:-0.289203 7:-0.457544 8:-0.907791 9:-0.569953 10:-0.598457 
128 1:0.37136 2:-0.814468 3:-0.222903 4:0.222903 5:-0.545456 6:-0.251102 7:-0.434533 8:-0.946644 9:-0.444191 10:-0.372518 
128 1:-0.355854 2:-0.857332 3:0.0229929 4:-0.0229929 5:-0.631774 6:-0.678805 7:-0.471462 8:-0.777226 9:-0.867359 10:-0.556127 
93.00573661823924 1:-0.334261 2:-1 3:-0.398127 4:0.398127 5:-0.527051 6:-0.584522 7:-0.199594 8:-0.861671 9:-0.755704 10:-0.574691 
51.15338050990643 1:0.0657171 2:-0.94493 3:-0.540078 4:0.540078 5:-0.456144 6:0.258539 7:-0.0135458 8:-0.974655 9:-0.102048 10:-0.0947651 
95.96431276378046 1:-0.151673 2:-0.831191 3:-0.355795 4:0.355795 5:-0.475529 6:-0.754123 7:0.465697 8:-0.928808 9:-0.762867 10:-0.645763 
98.99255235315839 1:0.778525 2:-0.883644 3:-0.0929802 4:0.0929802 5:-0.727294 6:0.336233 7:-0.301218 8:-0.975325 9:-0.0209038 10:0.822324 
-71.51738406558329 1:0.278192 2:-0.777852 3:-0.0232533 4:0.0232533 5:-0.467912 6:-0.441121 7:-0.508812 8:-0.940691 9:-0.578571 10:-0.755166 
-92.7190809346518 1:-1 2:-0.877556 3:0.422889 4:-0.422889 5:-0.0385556 6:-0.245336 7:-0.789218 8:-0.973368 9:0.247479 10:0.924647 
-54.12690951170595 1:-0.385488 2:-0.841563 3:0.536075 4:-0.536075 5:-0.103188 6:-0.454245 7:0.925569 8:-1 9:-0.271619 10:-0.974724 
-128 1:-0.369562 2:-0.840986 3:0.161113 4:-0.161113 5:0.436469 6:-0.152754 7:0.408812 8:-1 9:0.602217 10:-0.191093 
-128 1:0.286075 2:-0.849144 3:-0.276437 4:0.276437 5:-0.534342 6:-0.52248 7:-0.121261 8:-0.946133 9:-0.538884 10:-0.73714 
-128 1:0.161699 2:-0.842085 3:-0.639727 4:0.639727 5:-0.6018 6:-0.234143 7:-0.387153 8:-0.976049 9:-0.542613 10:-0.154503 
-128 1:0.400706 2:-0.85579 3:-0.284267 4:0.284267 5:-0.746854 6:-0.667054 7:-0.620378 8:-0.948011 9:-0.680283 10:-0.510202 
-128 1:0.937454 2:-0.870421 3:-0.295281 4:0.295281 5:-0.530731 6:-0.641966 7:-0.536732 8:-0.963365 9:-0.36291 10:0.67293 
-27.77421217311478 1:-0.091846 2:-0.841053 3:0.899483 4:-0.899483 5:0.189008 6:-0.199311 7:1 8:-1 9:0.210514 10:-0.812569 
-83.26734013472777 1:-0.299049 2:-0.841298 3:0.206981 4:-0.206981 5:0.459435 6:-0.434247 7:0.69959 8:-1 9:0.619063 10:-0.575812 
-128 1:-0.00195859 2:-0.840182 3:0.240595 4:-0.240595 5:-0.325952 6:-0.454264 7:0.299638 8:-0.889573 9:-0.391449 10:-0.0100965 
-128 1:0.53679 2:-0.840692 3:-0.00808282 4:0.00808282 5:-0.858766 6:-0.109604 7:-0.37782 8:-0.953162 9:-0.589733 10:0.0012499 
-83.98663603680049 1:-0.457891 2:-0.808773 3:-0.00052509 4:0.00052509 5:-0.735681 6:-0.13118 7:-0.803386 8:-0.960916 9:-0.574434 10:0.0423279 
-128 1:0.117641 2:-0.847334 3:0.0211945 4:-0.0211945 5:-0.748446 6:-0.718137 7:-0.187804 8:-0.971353 9:-0.779475 10:-0.501615 
-0.5226556320383945 1:-0.336869 2:1 3:0.354505 4:-0.354505 5:-0.653576 6:-0.656746 7:-0.099411 8:1 9:-1 10:-1 
-128 1:0.31136 2:-0.752155 3:-0.0889487 4:0.0889487 5:-0.441384 6:-0.0823863 7:-0.390573 8:-0.949551 9:-0.453444 10:-0.571509 
-128 1:0.678217 2:-0.839401 3:-0.0224059 4:0.0224059 5:-0.269529 6:-0.168876 7:-0.0345923 8:-0.976676 9:-0.168868 10:-0.415331 
