svm_type c_svc
kernel_type rbf
gamma 0.000488281
nr_class 2
total_sv 39
rho 3.2503
label -1 1
nr_sv 19 20
SV
103.5128214625118 1:0.211502 2:-0.358519 3:-0.282699 4:0.17078 5:0.89777 6:-0.246682 7:0.924775 8:-1 9:0.0890907 10:0.672319 11:-0.150973 
2048 1:-0.0293564 2:-0.0592507 3:-0.154435 4:-0.0733396 5:-0.807356 6:-0.917331 7:-0.256199 8:0.294195 9:0.220282 10:-0.0803725 11:-0.573789 
2048 1:-0.529456 2:0.217532 3:-0.0993092 4:0.727149 5:-0.664836 6:-0.257847 7:-0.267595 8:-0.193444 9:0.782178 10:-0.195858 11:0.125143 
511.1475131781463 1:0.887888 2:-0.576229 3:-0.595263 4:-0.740192 5:-0.296389 6:-0.429191 7:0.790781 8:-0.107115 9:0.114554 10:-0.166336 11:-0.526511 
2048 1:-0.924226 2:0.183542 3:0.0981027 4:0.627415 5:0.242007 6:-0.0797731 7:-0.936934 8:-0.0158646 9:0.432553 10:-0.00886948 11:-0.0314607 
2048 1:-0.0363363 2:0.217066 3:-0.479155 4:-0.0858355 5:-0.163935 6:0.0215686 7:-0.16558 8:0.472257 9:-0.229252 10:-0.709675 11:0.00349787 
2048 1:-0.502263 2:0.326784 3:0.413015 4:0.736757 5:0.634189 6:0.170531 7:-0.170269 8:0.0596595 9:0.0145982 10:0.102528 11:-0.253672 
2048 1:-0.497174 2:-0.529048 3:0.0720202 4:0.590987 5:-0.3182 6:0.864337 7:-0.205056 8:-0.28629 9:0.0306921 10:-0.291656 11:0.336028 
2048 1:-0.607658 2:0.564567 3:0.206104 4:0.130587 5:-0.629618 6:-0.560763 7:-0.463606 8:0.42618 9:-0.0342942 10:-0.631173 11:-0.0697764 
1532.112315902894 1:1 2:-0.0553699 3:-0.0945686 4:-1 5:-0.14094 6:-0.558206 7:0.512239 8:-0.911864 9:0.159486 10:0.502503 11:0.292592 
2048 1:-0.687588 2:0.924562 3:0.138132 4:0.411799 5:-0.570091 6:-0.0947164 7:-0.526325 8:0.0936492 9:-0.0744931 10:-0.669912 11:0.552545 
2048 1:-0.833248 2:0.843966 3:0.386688 4:0.532976 5:-0.289651 6:-0.858409 7:-0.69859 8:0.391616 9:0.0589749 10:-0.225506 11:0.111153 
2048 1:-0.578382 2:0.625844 3:0.193998 4:0.300816 5:-0.840079 6:0.57827 7:-0.481674 8:0.324648 9:0.0961325 10:-0.704748 11:0.445328 
2048 1:-0.54507 2:0.673786 3:-0.0743104 4:0.330819 5:0.214044 6:-0.61156 7:-0.267764 8:0.0469351 9:0.615856 10:-0.514622 11:0.798402 
2048 1:-0.315891 2:0.718562 3:1 4:0.427389 5:-0.335403 6:-0.121075 7:-0.285515 8:-0.162464 9:0.556214 10:-0.313739 11:0.443769 
2048 1:-0.772361 2:-0.04961 3:0.471443 4:1 5:0.405299 6:0.752579 7:-0.126845 8:-0.104244 9:0.0699823 10:0.458595 11:-0.0168481 
2048 1:0.0251559 2:0.123946 3:-0.162528 4:0.23723 5:-0.181306 6:-0.662143 7:0.845225 8:-0.509309 9:-0.0824672 10:0.618391 11:0.467101 
2048 1:0.0813361 2:-0.658372 3:-0.562422 4:0.419569 5:0.273558 6:-0.313596 7:0.848488 8:-0.675683 9:-0.205689 10:0.0392905 11:0.229007 
2048 1:-0.65691 2:0.913632 3:0.375695 4:0.404313 5:-0.640001 6:-0.418649 7:-0.571975 8:0.30641 9:0.396672 10:-0.940825 11:-0.16632 
-2048 1:-0.761768 2:0.857933 3:0.355602 4:0.357245 5:-0.391691 6:-0.288811 7:-0.795984 8:0.425136 9:-0.0667975 10:0.31166 11:0.447553 
-2048 1:-0.570162 2:0.142234 3:-0.0293156 4:0.358199 5:-0.53605 6:-0.137995 7:-0.69501 8:-0.289251 9:0.562166 10:-0.36278 11:0.204357 
-2048 1:-0.718709 2:1 3:0.407918 4:0.516649 5:-0.0372707 6:-0.576184 7:-0.610949 8:0.510461 9:-0.409894 10:-0.627028 11:0.461301 
-2048 1:-0.142519 2:0.233097 3:0.00301968 4:0.299227 5:0.320277 6:-0.871342 7:0.87803 8:-0.0727653 9:-0.40836 10:0.00560399 11:0.476794 
-2048 1:-0.215445 2:-0.876922 3:0.0250065 4:0.230739 5:0.380494 6:0.690952 7:0.375165 8:-0.643119 9:-0.0381965 10:-0.0607215 11:-0.110835 
-757.4944896659546 1:-0.825197 2:0.739829 3:-0.129213 4:0.863244 5:-0.754238 6:-0.278354 7:-0.270792 8:0.428484 9:-0.139253 10:-0.0228111 11:0.172447 
-2048 1:0.0470823 2:-0.000916104 3:0.264755 4:0.23339 5:-0.243286 6:-0.300285 7:0.875811 8:-0.323971 9:-0.260804 10:0.128138 11:-0.761861 
-128.5940599937904 1:-0.796538 2:0.0236477 3:0.149886 4:0.49193 5:-0.319856 6:1 7:-1 8:0.0855944 9:0.415696 10:-0.817521 11:0.149955 
-2048 1:0.222767 2:0.336805 3:0.254512 4:-0.492982 5:-0.136735 6:-0.884598 7:-0.149817 8:0.0439545 9:0.184004 10:-0.309853 11:-1 
-2048 1:-0.693502 2:0.308492 3:-0.370724 4:0.414779 5:-0.969704 6:-0.619032 7:-0.754824 8:0.415973 9:0.815871 10:0.115899 11:0.0458954 
-804.9012652424001 1:-0.0391079 2:0.0523395 3:0.117805 4:0.338572 5:0.253205 6:0.53757 7:1 8:-0.211952 9:-0.30964 10:0.473979 11:0.209302 
-2048 1:-0.306396 2:-1 3:-0.220442 4:0.343654 5:0.558021 6:0.017897 7:0.566642 8:-0.773617 9:-0.239048 10:-0.202748 11:0.280998 
-2048 1:-0.698565 2:0.4774 3:-0.0292886 4:0.928867 5:-0.581861 6:0.36409 7:-0.0929857 8:-0.323249 9:0.595588 10:0.0683854 11:0.97692 
-2048 1:0.224306 2:0.729443 3:0.383954 4:-0.420994 5:-0.335624 6:-0.452071 7:-0.127264 8:-0.0932671 9:0.397624 10:-0.201603 11:-0.0619407 
-519.648820811541 1:0.320439 2:0.412684 3:0.408734 4:-0.114887 5:-0.354656 6:0.11203 7:0.785578 8:-0.557089 9:-0.00530557 10:0.27338 11:0.654367 
-1984.134014829865 1:-0.867864 2:-0.187193 3:0.415717 4:0.368588 5:-0.485243 6:0.171544 7:-0.974859 8:-0.37166 9:0.503236 10:-1 11:-0.34346 
-2048 1:-0.495266 2:-0.0417737 3:-0.549933 4:0.250174 5:-0.71594 6:0.0958539 7:-0.469702 8:0.477288 9:0.338507 10:-0.799074 11:0.501797 
-2048 1:-0.381851 2:0.754729 3:-0.0382804 4:0.534953 5:-0.597696 6:0.28896 7:-0.26986 8:0.511847 9:0.224862 10:-0.698685 11:0.95428 
-2048 1:-0.796539 2:0.988511 3:0.607 4:0.60959 5:-0.495363 6:-0.922912 7:-0.662846 8:0.130856 9:0.000619726 10:-0.284696 11:0.168121 
-2048 1:-0.660378 2:0.733136 3:0.202244 4:0.688846 5:0.223172 6:0.536715 7:-0.315683 8:-0.232231 9:-0.0157069 10:-0.349079 11:0.0531557 
