svm_type c_svc
kernel_type rbf
gamma 0.0078125
nr_class 31
total_sv 50
rho -0.999258 -0.999062 -0.999748 -0.999085 0.000279101 -0.999118 -0.999833 -0.999411 -0.998917 0.999345 -0.999953 -1.00013 -0.999249 -0.998847 -0.998985 -0.999734 -0.999686 -0.998351 -1.0001 -0.99937 -0.999608 -0.999282 -0.998888 -0.999837 -0.999626 -0.999349 -0.999463 -0.99551 -0.999227 -0.999075 0.99935 0 0 0.999826 0.998862 0 0.999077 0.999684 0.999213 0 0 0 0.999568 0 0 0 0.999547 0 0.998222 0 0 0.999351 0 0 0 0 0.999778 0 0.999094 -0.999601 -0.999605 1.00029 0.000227586 -0.998054 -5.97872e-05 -6.84522e-07 0.999204 -0.999305 -0.997791 -0.999552 8.35685e-05 -0.999411 -0.997771 -0.998949 0.000298155 -0.998632 0.000149196 -0.997688 -0.999394 -8.57469e-05 -0.999281 -0.999589 -0.999632 -0.998638 0.000375808 -0.999688 0.00014392 0 1.00031 0.99975 0 0.99976 0.999785 0.999834 0 0 0 0.999833 0 0 0 1.0002 0 0.999146 0 0 0.999716 0 0 0 0 0.999322 0 0.999991 0.99985 0.998392 0 0.998937 0.99977 0.998895 0 0 0 0.999731 0 0 0 0.999273 0 0.99819 0 0 0.999595 0 0 0 0 1.00006 0 0.999432 -0.999236 -0.999304 -1.00027 -0.999715 0.999236 -1.0003 -0.999379 -1.00018 -0.999819 -0.999662 -0.999321 -0.999825 -0.998805 -0.999965 -1.00002 -0.999109 -1.00004 -1.00024 -1.00006 -1.00012 -1.00015 -0.999332 -0.996933 -0.999821 -0.999121 -0.999678 -0.000304139 -0.000131151 0.999239 -0.999461 -0.999668 -0.998946 0.000282365 -0.998296 -0.999798 -0.999855 0.000629058 -0.999487 -0.000648988 -0.999858 -0.99923 -9.37218e-05 -0.999791 -0.999166 -0.998844 -0.999472 9.24962e-05 -0.998896 -0.000121071 0.998764 0.997781 0.999791 0 0 0 0.998306 0 0 0 0.998244 0 0.99921 0 0 0.997929 0 0 0 0 0.997572 0 0.999812 -1.01281e-05 0.999656 -1.00006 -0.999352 -0.999748 0.000226518 -0.998951 -0.998813 -0.999072 1.51321e-05 -0.99985 3.77633e-05 -0.998729 -0.99952 2.74535e-05 -0.999434 -0.999341 -0.999465 -0.998499 0.00017221 -0.998924 0.000544962 0.999001 -0.999724 -0.998125 -0.999675 8.51182e-05 -0.999235 -0.997681 -0.999004 0.00026374 -0.998623 0.000352546 -0.997731 -0.999363 -3.77316e-05 -0.999361 -0.999431 -0.999547 -0.998437 0.00051889 -0.999904 3.4105e-05 -0.999901 -0.999682 -0.999674 -0.999184 -0.999099 -0.999691 -0.999246 -0.99936 -0.999945 -1.00012 -0.99944 -0.999344 -0.999485 -0.999842 -0.999784 -0.99942 -0.999574 -0.996196 -0.999182 -0.998733 0 0 0.999471 0 0 0 0.999416 0 0.999341 0 0 0.999466 0 0 0 0 0.99888 0 0.999818 0 0.998288 0 0 0 0.998028 0 0.999486 0 0 0.997987 0 0 0 0 0.997338 0 0.999641 0.999645 0 0 0 0.999792 0 0.998832 0 0 0.999864 0 0 0 0 0.999399 0 0.99973 -0.99922 -0.998476 -0.999381 0.00016904 -0.998716 -0.000123977 -0.998409 -0.999379 -0.000226721 -0.999747 -0.999641 -0.999744 -0.999027 0.000206409 -0.999836 0.00010006 0 0 0.999506 0 0.99802 0 0 0.999231 0 0 0 0 0.999607 0 0.999448 0 0.998237 0 0.999257 0 0 0.997831 0 0 0 0 0.997277 0 0.999576 0.999239 0 0.998984 0 0 0.998925 0 0 0 0 0.998065 0 0.999998 -0.99848 6.17653e-05 -0.998041 -0.99944 -0.000451048 -0.999567 -0.999813 -0.99978 -0.999088 7.4924e-05 -0.999671 -8.04365e-05 0.999794 0 0 0.998814 0 0 0 0 0.998521 0 0.99954 -0.999462 -0.999193 -5.07012e-06 -0.999231 -0.998841 -0.998678 -0.998761 -0.000121824 -0.998213 0.000611436 0 0.998074 0 0 0 0 0.997317 0 0.999504 0.999664 0 0 0 0 0.999305 0 0.99979 -0.99954 -0.999485 -0.999776 -0.998717 0.000265869 -0.999652 0.000102584 0 0 0 0.99904 0 1.00008 0 0 0.99972 0 1 0 0.999973 0 0.999605 0.998379 0 1.00009 -0.999842 -0.000108674 0.999457
label 3 30 23 35 32 19 5 2 17 10 0 1 8 41 9 15 12 14 33 21 24 7 22 4 16 20 13 6 37 44 11
nr_sv 3 1 2 1 1 3 2 1 2 2 6 1 1 1 2 1 1 1 2 1 2 1 1 2 1 1 1 1 2 1 2
SV
0 0 0 0 0.03125 0.03116633182129179 0.01633408601600996 0.03125 0 0.03125 0.01334513925147498 0.02600081817838591 0 0 0 0.01602572956925233 0 0 0.01864525578549269 0.03125 0.02222557758237265 0.01172686861906038 0 0 0 0 0 0 0 0.01928093250695935 1:0.211502 2:-0.358519 3:-0.282699 4:0.17078 5:0.89777 6:-0.246682 7:0.924775 8:-1 9:0.0890907 10:0.672319 11:-0.150973 12:0.605199 13:0.186798 14:-0.841349 15:0.963265 
0 0.03125 0 0 0.03125 0.03125 0 0 0.03125 0.03125 0 0 0 0.03125 0 0 0.03030058133799948 0.03125 0 0 0 0 0.03125 0 0 0 0.0203440154994875 0.03125 0 0.03125 1:-0.0293564 2:-0.0592507 3:-0.154435 4:-0.0733396 5:-0.807356 6:-0.917331 7:-0.256199 8:0.294195 9:0.220282 10:-0.0803725 11:-0.573789 12:0.255464 13:-0.280368 14:-0.83357 15:0.892836 
0.03125 0.03125 0.03125 0.03125 0.03125 8.36681787082065e-05 0.01491591398399004 0.03125 0.03125 0.03125 0.01790486074852502 0.005249181821614091 0.03125 0.03125 0.03125 0.01522427043074767 0.0009494186620005243 0.03125 0.01260474421450731 0.03125 0.009024422417627347 0.01952313138093962 0.03125 0.03125 0.03125 0.03125 0.0109059845005125 0.03125 0.03125 0.01196906749304065 1:-0.0363363 2:0.217066 3:-0.479155 4:-0.0858355 5:-0.163935 6:0.0215686 7:-0.16558 8:0.472257 9:-0.229252 10:-0.709675 11:0.00349787 12:-0.594203 13:0.378751 14:-0.874287 15:0.930592 
-0.03125 0.03125 0.03125 0.03125 0.03125 0.03125 0.03125 0.03125 0.03125 0.03125 0.03125 0.03125 0.03125 0.03125 0.03125 0.03125 0.03125 0.03125 0.03125 0.03125 0.03125 0.03125 0.03125 0.03125 0.03125 0.03125 0.03125 0.03125 0.03125 0.03125 1:-0.761768 2:0.857933 3:0.355602 4:0.357245 5:-0.391691 6:-0.288811 7:-0.795984 8:0.425136 9:-0.0667975 10:0.31166 11:0.447553 12:-1 13:0.0983459 14:-0.717444 15:0.593853 
-0.03125 -0 0 0 0.03125 0.03125 0 0.03125 0.03125 0.03125 0 0 0 0.03125 0 0 0 0.03125 0 0.03125 0 0 0.03125 0 0 0 0.03125 0.03125 0 0.03125 1:-0.562268 2:0.73832 3:0.158062 4:0.347648 5:-0.850729 6:-0.562224 7:-0.509777 8:0.17954 9:-0.0772937 10:-0.682895 11:-0.101608 12:0.186738 13:0.718359 14:-0.777852 15:0.840686 
-0.03125 -0.03125 0.03125 0.03125 0.03125 0.03125 0.03125 0.03125 0.03125 0.03125 0.03125 0.03125 0.03125 0.03125 0.03125 0.03125 0.03125 0.03125 0.03125 0.03125 0.03125 0.03125 0.03125 0.03125 0.03125 0.03125 0 0.03125 0.03125 0.03125 1:-0.825197 2:0.739829 3:-0.129213 4:0.863244 5:-0.754238 6:-0.278354 7:-0.270792 8:0.428484 9:-0.139253 10:-0.0228111 11:0.172447 12:0.485021 13:0.198326 14:-0.849144 15:0.524708 
-0.03125 -0.03125 -0.03125 0.03125 0.03125 0.03125 0.03125 0.03125 0.03125 0.03125 0.03125 0.03125 0.03125 0.03125 0.03125 0.03125 0.03125 0.03125 0.03125 0.03125 0.03125 0.03125 0.03125 0.03125 0.03125 0.03125 0.03125 0.03125 0.03125 0.03125 1:-0.570162 2:0.142234 3:-0.0293156 4:0.358199 5:-0.53605 6:-0.137995 7:-0.69501 8:-0.289251 9:0.562166 10:-0.36278 11:0.204357 12:-0.281222 13:0.163939 14:-0.877556 15:0.954489 
-0.03125 -0.03125 -0.03125 -0.03125 0.03125 0.03125 0.03125 0.03125 0.03125 0.03125 0.03125 0.03125 0.03125 0.03125 0.03125 0.03125 0.03125 0.03125 0.03125 0.03125 0.03125 0.03125 0.03125 0.03125 0.03125 0.03125 0.03125 0.03125 0.03125 0.03125 1:-0.718709 2:1 3:0.407918 4:0.516649 5:-0.0372707 6:-0.576184 7:-0.610949 8:0.510461 9:-0.409894 10:-0.627028 11:0.461301 12:-0.103823 13:0.827795 14:-0.848942 15:0.031184 
-0.03125 -0.01055404499917319 -0.03125 -0.009694075728971447 -0.01665967609690221 0.03125 0 0.03125 0.03125 0.03125 0.01611595115960203 0.02589859683331496 0.008212060584555175 0.03125 0.008495673885183552 0 0 0 0.0221205347915059 0.03125 0.02662280981286518 0.0149367985027836 0.03125 0.01690469413171095 0.01196213163860104 0.008908314873635761 0.01913348729812038 0.03125 0.01520255140006615 0.03125 1:-0.142519 2:0.233097 3:0.00301968 4:0.299227 5:0.320277 6:-0.871342 7:0.87803 8:-0.0727653 9:-0.40836 10:0.00560399 11:0.476794 12:0.811279 13:0.105547 14:-0.841563 15:0.536377 
-0.03125 -0 -0 -0 -0 0.01894345842451725 0.02860637026781045 0 0 0.03125 0 0 0 0 0 0.02661454878936004 0.02470931931268024 0.03125 0 0.01922842337775415 0 0 0 0 0 0 0 0 0 0.0141166876243583 1:0.0470823 2:-0.000916104 3:0.264755 4:0.23339 5:-0.243286 6:-0.300285 7:0.875811 8:-0.323971 9:-0.260804 10:0.128138 11:-0.761861 12:1 13:-0.0505385 14:-0.841188 15:0.962319 
-0.03125 -0.02069595500082681 -0.03125 -0.02155592427102855 -0.01459032390309778 0.01230654157548275 0.002643629732189554 0.03125 0.03125 0.03125 0.01513404884039797 0.005351403166685042 0.02303793941544482 0.03125 0.02275432611481645 0.004635451210639959 0.006540680687319764 0.03125 0.009129465208494104 0.01202157662224585 0.004627190187134825 0.01631320149721641 0.03125 0.01434530586828905 0.01928786836139897 0.02234168512636424 0.01211651270187962 0.03125 0.01604744859993385 0.0171333123756417 1:-0.796538 2:0.0236477 3:0.149886 4:0.49193 5:-0.319856 6:1 7:-1 8:0.0855944 9:0.415696 10:-0.817521 11:0.149955 12:-0.579433 13:-0.210454 14:-0.867865 15:0.835316 
-0.03125 -0.03125 -0.03125 -0.03125 -0.03125 -0.03125 0 0.03125 0.03125 0.03125 0.02271535138073879 0.007257039418590971 0.03125 0.03125 0.02990395174046679 0.008788026932692108 0.016251068399072 0.03125 0.01488014850122306 0.03125 0.007457850863600956 0.02798491860750353 0.03125 0.02228043413817154 0.02694003344670635 0.03125 0.01706992203330137 0.03125 0.03013923503587668 0.03125 1:-0.529456 2:0.217532 3:-0.0993092 4:0.727149 5:-0.664836 6:-0.257847 7:-0.267595 8:-0.193444 9:0.782178 10:-0.195858 11:0.125143 12:-0.0617557 13:-1 14:-0.86698 15:0.771367 
-0.03125 -0 -0.03125 -0 -0 -0.03125 0.03125 0.03125 0.03125 0.03125 0.008534648619261211 0.02399296058140903 0 0.03125 0.001346048259533213 0.02246197306730789 0.014998931600928 0.03125 0.01636985149877694 0.03125 0.02379214913639904 0.003265081392496465 0.03125 0.008969565861828462 0.004309966553293649 0 0.01418007796669863 0.03125 0.001110764964123323 0.03125 1:0.552571 2:-0.811982 3:-0.575366 4:-0.389877 5:-0.00615861 6:-1 7:0.773585 8:-0.866258 9:-0.0099256 10:1 11:-0.563414 12:0.773802 13:-0.0675295 14:-0.841058 15:0.797792 
-0.03125 -0.03125 -0.03125 -0.03125 -0.03125 -0.03125 -0.03125 0.03125 0.03125 0.03125 0.03125 0.03125 0.03125 0.03125 0.03125 0.03125 0.03125 0.03125 0.03125 0.03125 0.03125 0.03125 0.03125 0.03125 0.03125 0.03125 0.03125 0.03125 0.03125 0.03125 1:0.887888 2:-0.576229 3:-0.595263 4:-0.740192 5:-0.296389 6:-0.429191 7:0.790781 8:-0.107115 9:0.114554 10:-0.166336 11:-0.526511 12:0.403091 13:0.538041 14:-0.84308 15:0.87774 
-0.03125 -0 -0.03125 -0 -0 -0.03125 -0.03125 -0.03125 0.03125 0.03125 0 0.0202579924813441 0 0.03125 0 0.02997360338777374 0.01646582514433692 0.03125 0.01526357126772545 0.03125 0.02608995490057485 0 0.03125 0 0 0 0.01374680206919415 0.03125 0 0.03125 1:-0.215445 2:-0.876922 3:0.0250065 4:0.230739 5:0.380494 6:0.690952 7:0.375165 8:-0.643119 9:-0.0381965 10:-0.0607215 11:-0.110835 12:0.456807 13:-0.719835 14:-0.840986 15:0.9946 
-0.03125 -0.03125 -0.03125 -0.03125 -0.03125 -0.03125 -0.03125 -0 0.03125 0.03125 0.03125 0.0109920075186559 0.03125 0.03125 0.03125 0.001276396612226262 0.01478417485566308 0.03125 0.01598642873227455 0.03125 0.005160045099425154 0.03125 0.03125 0.03125 0.03125 0.03125 0.01750319793080585 0.03125 0.03125 0.03125 1:-0.660378 2:0.733136 3:0.202244 4:0.688846 5:0.223172 6:0.536715 7:-0.315683 8:-0.232231 9:-0.0157069 10:-0.349079 11:0.0531557 12:-0.290836 13:0.586418 14:-0.839401 15:0.611716 
-0.03125 -0 -0.03125 -0.03125 -0 -0.03125 -0.03125 -0.03125 -0.03125 0.03125 0.02064488530977538 0.02534620798765763 0.02096264184270844 0.03125 0 0.0241553695096216 0 0.03125 0 0.03125 0.02083965417279814 0 0.03125 0 0 0 0 0.03125 0 0.03125 1:-0.924226 2:0.183542 3:0.0981027 4:0.627415 5:0.242007 6:-0.0797731 7:-0.936934 8:-0.0158646 9:0.432553 10:-0.00886948 11:-0.0314607 12:0.388924 13:-0.125202 14:-0.840998 15:0.108109 
-0.03125 -0.03125 -0.03125 -0 -0.03125 -0.03125 -0.03125 -0 -0.03125 0.03125 0.01060511469022462 0.005903792012342372 0.01028735815729156 0.03125 0.03125 0.007094630490378402 0.03125 0.03125 0.03125 0.03125 0.01041034582720186 0.03125 0.03125 0.03125 0.03125 0.03125 0.03125 0.03125 0.03125 0.03125 1:-0.833248 2:0.843966 3:0.386688 4:0.532976 5:-0.289651 6:-0.858409 7:-0.69859 8:0.391616 9:0.0589749 10:-0.225506 11:0.111153 12:-0.270348 13:0.678284 14:-0.82461 15:0.564304 
-0.03125 -0 -0.01156626459623502 -0 -0 -0.01653237059038224 -0 -0.03125 -0 -0.02244429030277422 0 0 0.002615325904771256 0.03125 0 0.0254119147762702 0.03077860334627801 0.03125 0 0 0.01819451104244118 0 0.03125 0.02310503416723892 0.005113644395283622 0 0.03125 0 0.01009494607402728 0.03125 1:0.297722 2:-0.563155 3:-0.488457 4:-0.346175 5:-0.467016 6:-0.73054 7:0.34767 8:0.0683799 9:0.532867 10:-0.437593 11:0.0191022 12:0.68435 13:0.1956 14:-0.852609 15:0.861913 
-0.01090701502970437 -0 -0 -0 -0 -0 -0.03125 -0 -0 -0 0 0 0 0 0 0 0 0 0 0 0 0 0 0 0 0 0 0 0 0 1:-0.00707744 2:-0.727763 3:-0.819634 4:0.0311268 5:0.376559 6:-0.865597 7:0.364659 8:-0.600682 9:0.0259926 10:0.252994 11:-0.590292 12:0.6587 13:-0.471993 14:-0.819998 15:0.865051 
-0 -0 -0.03125 -0.03125 -0 -0.03125 -0.01321852353669356 -0 -0.03125 -0 0 0 0 0 0.03125 0 0 0 0 0.03125 0 0 0 0 0.02613635560471638 0.03125 0 0.03125 0 0 1:-0.497174 2:-0.529048 3:0.0720202 4:0.590987 5:-0.3182 6:0.864337 7:-0.205056 8:-0.28629 9:0.0306921 10:-0.291656 11:0.336028 12:0.159785 13:-0.388227 14:-0.867721 15:0.812709 
-0.02034298497029563 -0.01934257140389231 -0 -0 -0.0146620229957213 -0.01471762940961776 -0 -0 -0.01736849530810197 -0.03125 0.02353753916550436 0 0.02863467409522874 0.03125 0 0 0 0.03125 0.01161066021660631 0 0 0.02111472307782141 0.03125 0.008144965832761083 0 0 0 0 0.02115505392597272 0.01920644152279993 1:-0.772361 2:-0.04961 3:0.471443 4:1 5:0.405299 6:0.752579 7:-0.126845 8:-0.104244 9:0.0699823 10:0.458595 11:-0.0168481 12:0.122421 13:-0.570078 14:-0.94493 15:0.763627 
-0 -0.01190742859610769 -0.01968373540376498 -0 -0.0165879770042787 -0.03125 -0.01803147646330644 -0 -0 -0.008805709697225779 0 0 0 0 0 0 0 0 0 0.02890262042166677 0 0 0 0 0 0 0 0.03125 0 0.01204355847720007 1:0.0251559 2:0.123946 3:-0.162528 4:0.23723 5:-0.181306 6:-0.662143 7:0.845225 8:-0.509309 9:-0.0824672 10:0.618391 11:0.467101 12:0.349886 13:0.4115 14:-0.841884 15:0.893111 
-0.03125 -0 -0 -0 -0 -0 -0 -0 -0.01388150469189803 -0 0.007712460834495637 0.03125 0 0 0 0.005838085223729802 0.0004713966537219887 0 0.0196393397833937 0.002347379578333229 0.01305548895755882 0.01013527692217859 0 0 0 0 0 0 0 0 1:0.0813361 2:-0.658372 3:-0.562422 4:0.419569 5:0.273558 6:-0.313596 7:0.848488 8:-0.675683 9:-0.205689 10:0.0392905 11:0.229007 12:-0.275164 13:0.0931207 14:-0.841291 15:0.918981 
-0.03125 -0.03125 -0.03125 -0.03125 -0.03125 -0.03125 -0.03125 -0.03125 -0.03125 -0.03125 -0.03125 0.03125 0.03125 0.03125 0.03125 0.03125 0.03125 0.03125 0.03125 0.03125 0.03125 0.03125 0.03125 0.03125 0.03125 0.03125 0.03125 0.03125 0.03125 0.03125 1:-0.502263 2:0.326784 3:0.413015 4:0.736757 5:0.634189 6:0.170531 7:-0.170269 8:0.0596595 9:0.0145982 10:0.102528 11:-0.253672 12:0.0792999 13:0.39789 14:-0.87474 15:0.797625 
-0.03125 -0.03125 -0.03125 -0.03125 -0.03125 -0.03125 -0.03125 -0.03125 -0.03125 -0.03125 -0.03125 -0.03125 0.03125 0.03125 0.03125 0.03125 0.03125 0.03125 0.03125 0.03125 0.03125 0.03125 0.03125 0.03125 0.03125 0.03125 0.03125 0.03125 0.03125 0.03125 1:0.478359 2:-0.0893564 3:-0.608079 4:-0.0159583 5:1 6:-0.182499 7:0.774653 8:-0.910178 9:0.239522 10:0.398999 11:-0.239021 12:0.0476548 13:0.486497 14:-0.846375 15:0.843135 
-0.03125 -0.03125 -0.03125 -0.03125 -0.03125 -0.03125 -0.03125 -0.03125 -0.03125 -0.03125 -0.03125 -0.03125 -0.03125 0.03125 0.03125 0.03125 0.03125 0.03125 0.03125 0.03125 0.03125 0.03125 0.03125 0.03125 0.03125 0.03125 0.03125 0.03125 0.03125 0.03125 1:-0.753829 2:0.829182 3:0.306547 4:0.447019 5:-0.364475 6:0.765856 7:-0.651071 8:-0.077261 9:0.382115 10:-0.482456 11:0.186994 12:0.275387 13:0.369105 14:-0.842085 15:0.499284 
-0.03125 -0.01380458347521149 -0.03125 -0.01362009580645019 -0.03125 -0.03125 -0.03125 -0.03125 -0.03125 -0.03125 -0.03125 -0.01659073882036972 -0 -0.03125 0.03125 0.01400904003396231 0.02142850759656191 0.03125 0.01500366119348643 0.03125 0 0.01642126812539523 0.03125 0.01439416092152259 0.02366272005854961 0.02471224990750281 0.01802218808547772 0.03125 0.02206705143285883 0.03125 1:-0.607658 2:0.564567 3:0.206104 4:0.130587 5:-0.629618 6:-0.560763 7:-0.463606 8:0.42618 9:-0.0342942 10:-0.631173 11:-0.0697764 12:0.568806 13:0.304305 14:-0.807823 15:-0.213277 
-0.03125 -0.01744541652478851 -0.03125 -0.01762990419354981 -0 -0.03125 -0.03125 -0 -0.03125 -0.03125 -0.03125 -0.01465926117963028 -0.03125 -0 0 0.01724095996603769 0.009821492403438093 0.03125 0.01624633880651357 0.03125 0.03125 0.01482873187460477 0.03125 0.01685583907847742 0.007587279941450385 0.006537750092497189 0.01322781191452228 0.03125 0.009182948567141167 0.03125 1:-0.54507 2:0.673786 3:-0.0743104 4:0.330819 5:0.214044 6:-0.61156 7:-0.267764 8:0.0469351 9:0.615856 10:-0.514622 11:0.798402 12:-0.243941 13:-0.911762 14:-1 15:0.727951 
-0.03125 -0.03125 -0.03125 -0.03125 -0.03125 -0.03125 -0.03125 -0.03125 -0.03125 -0.03125 -0.03125 -0.03125 -0.03125 -0.03125 -0.03125 0.03125 0.03125 0.03125 0.03125 0.03125 0.03125 0.03125 0.03125 0.03125 0.03125 0.03125 0.03125 0.03125 0.03125 0.03125 1:-0.809986 2:0.291425 3:-0.408951 4:0.475426 5:-0.882945 6:0.61685 7:-0.744838 8:0.575906 9:0.154157 10:-0.895436 11:0.154542 12:0.457853 13:1 14:-0.85579 15:-0.00372271 
-0.03125 -0.03125 -0.03125 -0.03125 -0.03125 -0.03125 -0.03125 -0.03125 -0.03125 -0.03125 -0.03125 -0.03125 -0.03125 -0.03125 -0.03125 -0.03125 0.03125 0.03125 0.03125 0.03125 0.03125 0.03125 0.03125 0.03125 0.03125 0.03125 0.03125 0.03125 0.03125 0.03125 1:0.999466 2:-0.557044 3:-0.582997 4:-0.875864 5:-0.00894004 6:-0.418162 7:0.574726 8:-0.0394176 9:0.131104 10:-0.320617 11:-0.396765 12:0.402543 13:-0.443084 14:-0.813952 15:0.987229 
-0.03125 -0.03125 -0.03125 -0.03125 -0.03125 -0.03125 -0.03125 -0.03125 -0.03125 -0.03125 -0.03125 -0.03125 -0.03125 -0.03125 -0.03125 -0.03125 -0.03125 0.03125 0.03125 0.03125 0.03125 0.03125 0.03125 0.03125 0.03125 0.03125 0.03125 0.03125 0.03125 0.03125 1:0.222767 2:0.336805 3:0.254512 4:-0.492982 5:-0.136735 6:-0.884598 7:-0.149817 8:0.0439545 9:0.184004 10:-0.309853 11:-1 12:0.532308 13:-0.269028 14:-0.806191 15:0.864733 
-0.03125 -0.03125 -0.03125 -0.0167500994697983 -0.03125 -0.03125 -0.03125 -0.01998321386104313 -0.03125 -0.03125 -0.03125 -0.01473080965485445 -0.01865447399198511 -0.01288074873570793 -0.03125 -0.02021247465229526 -0.01276021689951174 -0.01246359828657981 0.01864720911514533 0.03125 0.01700585569423082 0.02070066623601074 0.03125 0.01840775307656342 0.02118796242874316 0.01729026443012108 0.02359827355594598 0.03125 0.02383868603489615 0.03125 1:-0.693502 2:0.308492 3:-0.370724 4:0.414779 5:-0.969704 6:-0.619032 7:-0.754824 8:0.415973 9:0.815871 10:0.115899 11:0.0458954 12:-0.417058 13:0.541517 14:-0.870421 15:0.359684 
-0.03125 -0 -0.03125 -0.0144999005302017 -0 -0.03125 -0.03125 -0.01126678613895687 -0.03125 -0.03125 -0.03125 -0.01651919034514555 -0.01259552600801489 -0.01836925126429207 -0.03125 -0.01103752534770474 -0.01848978310048827 -0.01878640171342019 0.01260279088485467 0.03125 0.01424414430576918 0.01054933376398926 0.03125 0.01284224692343658 0.01006203757125684 0.01395973556987892 0.007651726444054017 0.03125 0.007411313965103847 0.03125 1:-0.867864 2:-0.187193 3:0.415717 4:0.368588 5:-0.485243 6:0.171544 7:-0.974859 8:-0.37166 9:0.503236 10:-1 11:-0.34346 12:0.278694 13:-0.664544 14:-0.808773 15:0.725803 
-0.03125 -0.03125 -0.03125 -0.03125 -0.03125 -0.03125 -0.03125 -0.03125 -0.03125 -0.03125 -0.03125 -0.03125 -0.03125 -0.03125 -0.03125 -0.03125 -0.03125 -0.03125 -0.03125 0.03125 0.03125 0.03125 0.03125 0.03125 0.03125 0.03125 0.03125 0.03125 0.03125 0.03125 1:-0.0391079 2:0.0523395 3:0.117805 4:0.338572 5:0.253205 6:0.53757 7:1 8:-0.211952 9:-0.30964 10:0.473979 11:0.209302 12:-0.0501825 13:0.516745 14:-0.841053 15:0.896324 
-0.03125 -0 -0.03125 -0 -0 -0.03125 -0.03125 -0 -0.03125 -0.03125 -0.03125 -0.03125 -0.03125 -0 -0.03125 -0 -0.01601379063916695 -0 -0.03125 -0 0 0 0.03125 0 0 0 0 0.03125 0 0.03125 1:-0.306396 2:-1 3:-0.220442 4:0.343654 5:0.558021 6:0.017897 7:0.566642 8:-0.773617 9:-0.239048 10:-0.202748 11:0.280998 12:0.587429 13:-0.248314 14:-0.841298 15:1 
-0.03125 -0.03125 -0.03125 -0.03125 -0.03125 -0.03125 -0.03125 -0.03125 -0.03125 -0.03125 -0.03125 -0 -0 -0.03125 -0.03125 -0.03125 -0.01523620936083305 -0.03125 -0.03125 -0.03125 0.03125 0.03125 0.03125 0.03125 0.03125 0.03125 0.03125 0.03125 0.03125 0.03125 1:0.320439 2:0.412684 3:0.408734 4:-0.114887 5:-0.354656 6:0.11203 7:0.785578 8:-0.557089 9:-0.00530557 10:0.27338 11:0.654367 12:0.662617 13:-0.0638018 14:-0.842403 15:0.96704 
-0.03125 -0.03125 -0.03125 -0.03125 -0.03125 -0.03125 -0.03125 -0.03125 -0.03125 -0.03125 -0.03125 -0.03125 -0.03125 -0.03125 -0.03125 -0.03125 -0.03125 -0.03125 -0.03125 -0.03125 -0.03125 0.03125 0.03125 0.03125 0.03125 0.03125 0.03125 0.03125 0.03125 0.03125 1:1 2:-0.0553699 3:-0.0945686 4:-1 5:-0.14094 6:-0.558206 7:0.512239 8:-0.911864 9:0.159486 10:0.502503 11:0.292592 12:0.258641 13:-0.287395 14:-0.842712 15:0.855499 
-0.03125 -0.03125 -0.03125 -0.03125 -0.03125 -0.03125 -0.03125 -0.03125 -0.03125 -0.03125 -0.03125 -0.03125 -0.03125 -0.03125 -0.03125 -0.03125 -0.03125 -0.03125 -0.03125 -0.03125 -0.03125 -0.03125 0.03125 0.03125 0.03125 0.03125 0.03125 0.03125 0.03125 0.03125 1:-0.698565 2:0.4774 3:-0.0292886 4:0.928867 5:-0.581861 6:0.36409 7:-0.0929857 8:-0.323249 9:0.595588 10:0.0683854 11:0.97692 12:0.489733 13:0.590851 14:-0.840182 15:0.659763 
-0.03125 -0 -0.03125 -0 -0.03125 -0.03125 -0.03125 -0 -0.03125 -0.03125 -0.03125 -0 -0 -0.03125 -0.03125 -0.03125 -0 -0 -0.03125 -0 -0.03125 -0 -0.03125 0 0.03125 0 0 0.03125 0 0.03125 1:-0.687588 2:0.924562 3:0.138132 4:0.411799 5:-0.570091 6:-0.0947164 7:-0.526325 8:0.0936492 9:-0.0744931 10:-0.669912 11:0.552545 12:0.703784 13:0.506874 14:-0.844646 15:0.512631 
-0.03125 -0.03125 -0.03125 -0.03125 -0 -0.03125 -0.03125 -0.03125 -0.03125 -0.03125 -0.03125 -0.03125 -0.03125 -0 -0.03125 -0 -0.03125 -0.03125 -0.03125 -0.03125 -0.03125 -0.03125 -0 0.03125 0 0.03125 0.03125 0.03125 0.03125 0.03125 1:-0.315891 2:0.718562 3:1 4:0.427389 5:-0.335403 6:-0.121075 7:-0.285515 8:-0.162464 9:0.556214 10:-0.313739 11:0.443769 12:0.105153 13:0.0404523 14:-0.834269 15:0.829776 
-0.03125 -0.03125 -0.03125 -0.03125 -0.03125 -0.03125 -0.03125 -0.03125 -0.03125 -0.03125 -0.03125 -0.03125 -0.03125 -0.03125 -0.03125 -0.03125 -0.03125 -0.03125 -0.03125 -0.03125 -0.03125 -0.03125 -0.03125 -0.03125 0.03125 0.03125 0.03125 0.03125 0.03125 0.03125 1:0.224306 2:0.729443 3:0.383954 4:-0.420994 5:-0.335624 6:-0.452071 7:-0.127264 8:-0.0932671 9:0.397624 10:-0.201603 11:-0.0619407 12:-0.272022 13:-0.0187762 14:-0.840692 15:0.866222 
-0.03125 -0.03125 -0.03125 -0.03125 -0.03125 -0.03125 -0.03125 -0.03125 -0.03125 -0.03125 -0.03125 -0.03125 -0.03125 -0.03125 -0.03125 -0.03125 -0.03125 -0.03125 -0.03125 -0.03125 -0.03125 -0.03125 -0.03125 -0.03125 -0.03125 0.03125 0.03125 0.03125 0.03125 0.03125 1:-0.495266 2:-0.0417737 3:-0.549933 4:0.250174 5:-0.71594 6:0.0958539 7:-0.469702 8:0.477288 9:0.338507 10:-0.799074 11:0.501797 12:0.260703 13:0.705111 14:-0.847334 15:0.559285 
-0.03125 -0.03125 -0.03125 -0.03125 -0.03125 -0.03125 -0.03125 -0.03125 -0.03125 -0.03125 -0.03125 -0.03125 -0.03125 -0.03125 -0.03125 -0.03125 -0.03125 -0.03125 -0.03125 -0.03125 -0.03125 -0.03125 -0.03125 -0.03125 -0.03125 -0.03125 0.03125 0.03125 0.03125 0.03125 1:-0.578382 2:0.625844 3:0.193998 4:0.300816 5:-0.840079 6:0.57827 7:-0.481674 8:0.324648 9:0.0961325 10:-0.704748 11:0.445328 12:-0.0214239 13:0.374527 14:-0.814468 15:0.135147 
-0.03125 -0.03125 -0.03125 -0.03125 -0.03125 -0.03125 -0.03125 -0.03125 -0.03125 -0.03125 -0.03125 -0.03125 -0.03125 -0.03125 -0.03125 -0.03125 -0.03125 -0.03125 -0.03125 -0.03125 -0.03125 -0.03125 -0.03125 -0.03125 -0.03125 -0.03125 -0.03125 0.03125 0.03125 0.03125 1:0.53433 2:-0.0798684 3:-0.503359 4:-0.721243 5:-0.785088 6:-0.838052 7:-0.0736597 8:-0.0960151 9:1 10:-0.649641 11:0.274319 12:0.230731 13:0.597718 14:-0.857332 15:0.997723 
-0.03125 -0 -0.03125 -0 -0.01052680430695052 -0.03125 -0.03125 -0 -0.03125 -0.03125 -0.03125 -0 -0 -0 -0.03125 -0.007026369425487302 -0 -0 -0.03125 -0 -0.03125 -0 -0 -0.03125 -0 -0 -0 -0 0.00903925256327435 0.03125 1:-1 2:0.947459 3:-0.18917 4:0.326425 5:-1 6:-0.870958 7:-0.34456 8:1 9:-1 10:-0.434371 11:1 12:-0.165335 13:0.907633 14:1 15:-1 
-0.03125 -0.03125 -0.03125 -0.03125 -0.02072319569304948 -0.03125 -0.03125 -0.03125 -0.03125 -0.03125 -0.03125 -0.03125 -0.03125 -0.03125 -0.03125 -0.0242236305745127 -0.03125 -0.03125 -0.03125 -0.03125 -0.03125 -0.03125 -0.03125 -0.03125 -0.03125 -0.03125 -0.03125 -0.03125 0.02221074743672565 0.03125 1:-0.381851 2:0.754729 3:-0.0382804 4:0.534953 5:-0.597696 6:0.28896 7:-0.26986 8:0.511847 9:0.224862 10:-0.698685 11:0.95428 12:-0.728246 13:0.447829 14:-0.829302 15:0.829909 
-0.03125 -0.03125 -0.03125 -0.03125 -0.03125 -0.03125 -0.03125 -0.03125 -0.03125 -0.03125 -0.03125 -0.03125 -0.03125 -0.03125 -0.03125 -0.03125 -0.03125 -0.03125 -0.03125 -0.03125 -0.03125 -0.03125 -0.03125 -0.03125 -0.03125 -0.03125 -0.03125 -0.03125 -0.03125 0.03125 1:-0.796539 2:0.988511 3:0.607 4:0.60959 5:-0.495363 6:-0.922912 7:-0.662846 8:0.130856 9:0.000619726 10:-0.284696 11:0.168121 12:-0.40934 13:0.410711 14:-0.752155 15:0.211351 
-0.03125 -0 -0.03125 -0.007751034777396066 -0 -0.03125 -0.03125 -0.03125 -0.03125 -0.03125 -0.03125 -0.009863569548804652 -0.03125 -0 -0.03125 -0 -0.03125 -0.01289801111769343 -0.03125 -0.01906045963417203 -0.03125 -0.03125 -0.00960596483306554 -0.03125 -0.01121822585337437 -0.007811966189758028 -0 -0.0179816456447424 -0.03125 -0 1:0.516588 2:-0.25034 3:-1 4:-0.545757 5:0.337044 6:-0.563636 7:0.633769 8:-0.463225 9:0.864327 10:0.547705 11:0.13404 12:0.959384 13:0.54231 14:-0.831191 15:0.846479 
-0.03125 -0.03125 -0.03125 -0.02349896522260393 -0.03125 -0.03125 -0.03125 -0 -0.03125 -0.03125 -0.03125 -0.02138643045119535 -0 -0.03125 -0.03125 -0.03125 -0 -0.01835198888230657 -0.03125 -0.01218954036582797 -0.03125 -0 -0.02164403516693446 -0.03125 -0.02003177414662563 -0.02343803381024197 -0.03125 -0.01326835435525761 -0.03125 -0.03125 1:-0.65691 2:0.913632 3:0.375695 4:0.404313 5:-0.640001 6:-0.418649 7:-0.571975 8:0.30641 9:0.396672 10:-0.940825 11:-0.16632 12:0.565172 13:0.551364 14:-0.883644 15:0.554956 
