svm_type c_svc
kernel_type rbf
gamma 0.0078125
nr_class 31
total_sv 50
rho -0.999379 -0.999009 -0.999685 -0.99934 6.23055e-06 -0.999499 -0.999804 -0.999449 -0.999052 0.999545 -0.99988 -1.00006 -0.999232 -0.999239 -0.999417 -0.999814 -0.999758 -0.998543 -1.00004 -0.99948 -0.999617 -0.999295 -0.998738 -0.999794 -0.999734 -0.999452 -0.999505 -0.997368 -0.99932 -0.999255 0.999784 0 0 1.00001 0.999293 0 0.999221 0.999902 0.999673 0 0 0 0.999783 0 0 0 0.999638 0 0.998876 0 0 0.999794 0 0 0 0 0.99977 0 0.999843 -0.999704 -0.999759 1.00015 -0.000228623 -0.998036 -0.000200481 -9.94746e-05 0.999151 -0.999297 -0.997786 -0.999534 -2.50246e-05 -0.999569 -0.997948 -0.999062 0.000224893 -0.998649 0.000150549 -0.997792 -0.999376 -7.20983e-05 -0.999403 -0.999581 -0.999708 -0.998639 0.00026737 -0.999848 0.000227905 0 1.00027 0.999881 0 0.999669 0.999831 0.999936 0 0 0 0.99987 0 0 0 1.00014 0 0.99936 0 0 0.999811 0 0 0 0 0.999416 0 1.00028 1.00003 0.998901 0 0.999114 0.999794 0.999441 0 0 0 0.999884 0 0 0 0.999396 0 0.998736 0 0 0.999788 0 0 0 0 0.999892 0 0.999708 -0.999237 -0.99927 -1.00035 -0.999779 0.999469 -1.00024 -0.999335 -1.00013 -1.00013 -0.999948 -0.99921 -0.999713 -0.998976 -0.999944 -0.999849 -0.999014 -1.00006 -0.99994 -0.999987 -1.00015 -1.00016 -0.999337 -0.998908 -0.999875 -0.999248 -0.999858 -0.000167449 0.000166452 0.999435 -0.999596 -0.999845 -0.999071 0.000263826 -0.998891 -0.999724 -0.999795 0.000369629 -0.999698 -0.000429587 -0.999788 -0.999451 0.00029905 -0.999861 -0.999453 -0.999077 -0.999698 0.000308583 -0.999224 0.000319012 0.99873 0.997807 0.999821 0 0 0 0.998379 0 0 0 0.998274 0 0.999334 0 0 0.997911 0 0 0 0 0.99767 0 0.999836 -1.39577e-05 1.00002 -0.999971 -0.999284 -0.999681 0.000252442 -0.99925 -0.998729 -0.998986 5.13541e-05 -0.999799 0.000183087 -0.998601 -0.999523 0.00026527 -0.999323 -0.999358 -0.999472 -0.998467 -9.0329e-06 -0.998964 0.000777281 0.999315 -0.999703 -0.998113 -0.999617 0.000124432 -0.999346 -0.997836 -0.999114 0.000246147 -0.998633 0.000418507 -0.99779 -0.999377 3.02428e-05 -0.999396 -0.999419 -0.999483 -0.998488 0.000273001 -0.999889 0.000224374 -0.999969 -0.999725 -0.999724 -0.999595 -0.999511 -0.999729 -0.99969 -0.999562 -1.00005 -0.999882 -0.999429 -0.999553 -0.999533 -0.999908 -0.999452 -0.999599 -0.999609 -0.998143 -0.999453 -0.998683 0 0 0.999476 0 0 0 0.999364 0 0.99949 0 0 0.999458 0 0 0 0 0.998909 0 0.99992 0 0.998324 0 0 0 0.997991 0 0.999665 0 0 0.997989 0 0 0 0 0.997306 0 0.999754 0.999589 0 0 0 0.999745 0 0.998976 0 0 0.999836 0 0 0 0 0.999391 0 0.999786 -0.999467 -0.99843 -0.99932 0.000243103 -0.998791 0.000198023 -0.998305 -0.999451 -0.000136247 -0.999721 -0.999726 -0.999685 -0.999162 4.40124e-05 -0.999862 0.000341251 0 0 0.999787 0 0.998548 0 0 0.999421 0 0 0 0 0.999618 0 0.999615 0 0.998238 0 0.999286 0 0 0.997926 0 0 0 0 0.997669 0 0.99984 0.999235 0 0.99899 0 0 0.998965 0 0 0 0 0.998414 0 1.00016 -0.998458 0.000122943 -0.997971 -0.999495 -0.000307458 -0.99948 -0.999858 -0.999745 -0.999134 -0.000143796 -0.999656 0.000189275 1.00001 0 0 0.998845 0 0 0 0 0.998525 0 0.999689 -0.999499 -0.99935 -5.87385e-05 -0.999426 -0.999083 -0.999003 -0.998925 -0.000229307 -0.998665 0.00056152 0 0.998114 0 0 0 0 0.997544 0 0.999717 0.999649 0 0 0 0 0.999408 0 0.999795 -0.999637 -0.999496 -0.999851 -0.998731 0.000180205 -0.999827 0.000149179 0 0 0 0.999123 0 1.0004 0 0 0.999718 0 1.00006 0 0.999825 0 0.999812 0.998499 0 1.00016 -0.999633 0.000256684 0.999818
label 3 30 23 35 32 19 5 2 17 10 0 1 8 41 9 15 12 14 33 21 24 7 22 4 16 20 13 6 37 44 11
nr_sv 3 1 2 1 1 3 2 1 2 2 6 1 1 1 2 1 1 1 2 1 2 1 1 2 1 1 1 1 2 1 2
SV
0 0 0 0 0.03125 0.03125 0.0146139724188066 0.03125 0.003578460957080119 0.03125 0.01260887749953528 0.02809638023806995 0 0 0 0.0134004419552363 0 0 0.0197643193551885 0.03125 0.02181590366664896 0 0 0 0 0 0 0 0 0.0144742794887626 1:0.211502 2:-0.358519 3:-0.282699 4:0.17078 5:0.89777 6:-0.246682 7:0.924775 8:-1 9:0.0890907 10:0.672319 11:-0.150973 
0 0.03125 0 0 0.03125 0.03125 0 0 0.02767153904291988 0.03125 0 0 0 0.03125 0 0 0.02704958849581183 0.03125 0 0 0 0 0.03125 0 0 0 0 0.03125 0 0.03125 1:-0.0293564 2:-0.0592507 3:-0.154435 4:-0.0733396 5:-0.807356 6:-0.917331 7:-0.256199 8:0.294195 9:0.220282 10:-0.0803725 11:-0.573789 
0.03125 0.03125 0.03125 0.03125 0.03125 0 0.0166360275811934 0.03125 0.03125 0.03125 0.01864112250046472 0.003153619761930054 0.03125 0.03125 0.03125 0.0178495580447637 0.004200411504188175 0.03125 0.0114856806448115 0.03125 0.009434096333351037 0.03125 0.03125 0.03125 0.03125 0.03125 0.03125 0.03125 0.03125 0.0167757205112374 1:-0.0363363 2:0.217066 3:-0.479155 4:-0.0858355 5:-0.163935 6:0.0215686 7:-0.16558 8:0.472257 9:-0.229252 10:-0.709675 11:0.00349787 
-0.03125 0.03125 0.03125 0.03125 0.03125 0.03125 0.03125 0.03125 0.03125 0.03125 0.03125 0.03125 0.03125 0.03125 0.03125 0.03125 0.03125 0.03125 0.03125 0.03125 0.03125 0.03125 0.03125 0.03125 0.03125 0.03125 0.03125 0.03125 0.03125 0.03125 1:-0.761768 2:0.857933 3:0.355602 4:0.357245 5:-0.391691 6:-0.288811 7:-0.795984 8:0.425136 9:-0.0667975 10:0.31166 11:0.447553 
-0.03125 -0 0 0 0.03125 0.03125 0 0.03125 0.03125 0.03125 0 0 0 0.03125 0 0 0 0.03125 0 0.03125 0 0 0.03125 0 0 0 0 0.03125 0 0.03125 1:-0.562268 2:0.73832 3:0.158062 4:0.347648 5:-0.850729 6:-0.562224 7:-0.509777 8:0.17954 9:-0.0772937 10:-0.682895 11:-0.101608 
-0.03125 -0.03125 0.03125 0.03125 0.03125 0.03125 0.03125 0.03125 0.03125 0.03125 0.03125 0.03125 0.03125 0.03125 0.03125 0.03125 0.03125 0.03125 0.03125 0.03125 0.03125 0.03125 0.03125 0.03125 0.03125 0.03125 0.03125 0.03125 0.03125 0.03125 1:-0.825197 2:0.739829 3:-0.129213 4:0.863244 5:-0.754238 6:-0.278354 7:-0.270792 8:0.428484 9:-0.139253 10:-0.0228111 11:0.172447 
-0.03125 -0.03125 -0.03125 0.03125 0.03125 0.03125 0.03125 0.03125 0.03125 0.03125 0.03125 0.03125 0.03125 0.03125 0.03125 0.03125 0.03125 0.03125 0.03125 0.03125 0.03125 0.03125 0.03125 0.03125 0.03125 0.03125 0.03125 0.03125 0.03125 0.03125 1:-0.570162 2:0.142234 3:-0.0293156 4:0.358199 5:-0.53605 6:-0.137995 7:-0.69501 8:-0.289251 9:0.562166 10:-0.36278 11:0.204357 
-0.03125 -0.03125 -0.03125 -0.03125 0.03125 0.03125 0.03125 0.03125 0.03125 0.03125 0.03125 0.03125 0.03125 0.03125 0.03125 0.03125 0.03125 0.03125 0.03125 0.03125 0.03125 0.03125 0.03125 0.03125 0.03125 0.03125 0.03125 0.03125 0.03125 0.03125 1:-0.718709 2:1 3:0.407918 4:0.516649 5:-0.0372707 6:-0.576184 7:-0.610949 8:0.510461 9:-0.409894 10:-0.627028 11:0.461301 
-0.03125 -0.01424927411822991 -0 -0.01025935654174401 -0.01634208153894049 0.03125 0 0.03125 0.03125 0.03125 0.01603345887109327 0.02809420834428241 0 0.03125 0 0 0 0 0.02394701115382877 0.03125 0.02881334283461905 0.01235957812450311 0.03125 0.01911254598611127 0.009545596338183285 0.007036366687142133 0.0190431902268425 0.03125 0.01655398012094473 0.03125 1:-0.142519 2:0.233097 3:0.00301968 4:0.299227 5:0.320277 6:-0.871342 7:0.87803 8:-0.0727653 9:-0.40836 10:0.00560399 11:0.476794 
-0.03125 -0 -0.03125 -0 -0 0.02238560949496645 0.03103574578792985 0 0 0.03125 0 0 0 0 0 0.028928281662067 0.02563025772146075 0.03125 0 0.01882717453513775 0 0 0 0 0 0 0 0 0 0.01022359282583258 1:0.0470823 2:-0.000916104 3:0.264755 4:0.23339 5:-0.243286 6:-0.300285 7:0.875811 8:-0.323971 9:-0.260804 10:0.128138 11:-0.761861 
-0.03125 -0.01700072588177009 -0.03125 -0.02099064345825599 -0.01490791846105951 0.008864390505033553 0.0002142542120701536 0.03125 0.03125 0.03125 0.01521654112890673 0.003155791655717593 0.03125 0.03125 0.03125 0.002321718337933005 0.005619742278539255 0.03125 0.007302988846171227 0.01242282546486225 0.002436657165380954 0.01889042187549689 0.03125 0.01213745401388873 0.02170440366181672 0.02421363331285787 0.0122068097731575 0.03125 0.01469601987905527 0.02102640717416741 1:-0.796538 2:0.0236477 3:0.149886 4:0.49193 5:-0.319856 6:1 7:-1 8:0.0855944 9:0.415696 10:-0.817521 11:0.149955 
-0.03125 -0.03125 -0.03125 -0.03125 -0.03125 -0.03125 0 0.03125 0.03125 0.03125 0.02626684363125753 0.008169178058734038 0.03125 0.03125 0.03125 0.008043042344422574 0.01777095477962118 0.03125 0.01701439397626412 0.03125 0 0.03125 0.03125 0.02334078233941151 0.03125 0.03125 0.02071964642682039 0.03125 0.03125 0.03125 1:-0.529456 2:0.217532 3:-0.0993092 4:0.727149 5:-0.664836 6:-0.257847 7:-0.267595 8:-0.193444 9:0.782178 10:-0.195858 11:0.125143 
-0.03125 -0 -0.03125 -0 -0 -0.03125 0.03125 0.03125 0.03125 0.03125 0.004983156368742473 0.02308082194126596 0 0.03125 0 0.02320695765557743 0.01347904522037882 0.03125 0.01423560602373588 0.03125 0.03125 0 0.03125 0.007909217660588493 0 0 0.01053035357317961 0.03125 0 0.03125 1:0.552571 2:-0.811982 3:-0.575366 4:-0.389877 5:-0.00615861 6:-1 7:0.773585 8:-0.866258 9:-0.0099256 10:1 11:-0.563414 
-0.03125 -0.03125 -0.03125 -0.03125 -0.03125 -0.03125 -0.03125 0.03125 0.03125 0.03125 0.03125 0.03125 0.03125 0.03125 0.03125 0.03125 0.03125 0.03125 0.03125 0.03125 0.03125 0.03125 0.03125 0.03125 0.03125 0.03125 0.03125 0.03125 0.03125 0.03125 1:0.887888 2:-0.576229 3:-0.595263 4:-0.740192 5:-0.296389 6:-0.429191 7:0.790781 8:-0.107115 9:0.114554 10:-0.166336 11:-0.526511 
-0.03125 -0 -0.03125 -0 -0 -0.03125 -0.03125 -0.03125 0.03125 0.03125 0 0.02899107633057744 0 0.03125 0 0.03125 0 0.03125 0.0217217978943289 0.03125 0.02918185357390841 0 0.03125 0 0 0 0.0178542142689898 0.03125 0 0.03125 1:-0.215445 2:-0.876922 3:0.0250065 4:0.230739 5:0.380494 6:0.690952 7:0.375165 8:-0.643119 9:-0.0381965 10:-0.0607215 11:-0.110835 
-0.03125 -0.03125 -0.03125 -0.03125 -0.03125 -0.03125 -0.03125 -0 0.03125 0.03125 0.03125 0.002258923669422555 0.03125 0.03125 0.03125 0 0.03125 0.03125 0.009528202105671103 0.03125 0.002068146426091589 0.03125 0.03125 0.03125 0.03125 0.03125 0.0133957857310102 0.03125 0.03125 0.03125 1:-0.660378 2:0.733136 3:0.202244 4:0.688846 5:0.223172 6:0.536715 7:-0.315683 8:-0.232231 9:-0.0157069 10:-0.349079 11:0.0531557 
-0.03125 -0 -0.03125 -0.03125 -0 -0.03125 -0.03125 -0.03125 -0.03125 0.03125 0 0.03125 0 0.03125 0 0 0 0.03125 0 0.03125 0 0 0.03125 0 0 0 0 0.03125 0 0.03125 1:-0.924226 2:0.183542 3:0.0981027 4:0.627415 5:0.242007 6:-0.0797731 7:-0.936934 8:-0.0158646 9:0.432553 10:-0.00886948 11:-0.0314607 
-0.03125 -0.03125 -0.03125 -0 -0.03125 -0.03125 -0.03125 -0 -0.03125 0.03125 0.03125 0 0.03125 0.03125 0.03125 0.03125 0.03125 0.03125 0.03125 0.03125 0.03125 0.03125 0.03125 0.03125 0.03125 0.03125 0.03125 0.03125 0.03125 0.03125 1:-0.833248 2:0.843966 3:0.386688 4:0.532976 5:-0.289651 6:-0.858409 7:-0.69859 8:0.391616 9:0.0589749 10:-0.225506 11:0.111153 
-0.03125 -0.009837177228970191 -0.01326294618891938 -0 -0.01211913006720995 -0.01156070878119984 -0 -0.03125 -0 -0.02368222220307851 0 0 0 0.03125 0 0.02720344335094854 0.03125 0.03125 0 0 0 0 0.03125 0.02176863775406145 0 0 0.03125 0.02296487120209185 0.0066381947555487 0.03125 1:0.297722 2:-0.563155 3:-0.488457 4:-0.346175 5:-0.467016 6:-0.73054 7:0.34767 8:0.0683799 9:0.532867 10:-0.437593 11:0.0191022 
-0.03125 -0 -0 -0 -0 -0 -0.03125 -0 -0.01079443870974128 -0 0 0 0 0 0 0 0 0 0 0 0 0 0 0 0 0 0 0 0 0 1:-0.00707744 2:-0.727763 3:-0.819634 4:0.0311268 5:0.376559 6:-0.865597 7:0.364659 8:-0.600682 9:0.0259926 10:0.252994 11:-0.590292 
-0 -0 -0.03125 -0.03125 -0 -0.03125 -0.009755880521418368 -0 -0.03125 -0.007567777796921492 0 0 0 0 0.03125 0 0 0 0 0.01581892586389084 0 0 0 0 0.02921720623372151 0.03125 0 0.03125 0 0 1:-0.497174 2:-0.529048 3:0.0720202 4:0.590987 5:-0.3182 6:0.864337 7:-0.205056 8:-0.28629 9:0.0306921 10:-0.291656 11:0.336028 
-0.02702573217459154 -0.02141282277102981 -0 -0 -0.01913086993279005 -0.01968929121880016 -0 -0 -0.02045556129025872 -0.03125 0.02662347282836044 0 0.03125 0.03125 0 0 0 0.03125 0.01411963913801953 0 0 0.02359242373783974 0.03125 0.009481362245938551 0 0 0 0.008285128797908145 0.0246118052444513 0.02152797917142594 1:-0.772361 2:-0.04961 3:0.471443 4:1 5:0.405299 6:0.752579 7:-0.126845 8:-0.104244 9:0.0699823 10:0.458595 11:-0.0168481 
-0 -0 -0.01798705381108062 -0 -0 -0.03125 -0.02149411947858163 -0 -0 -0 0 0 0 0 0 0 0 0 0 0.01543107413610916 0 0 0 0 0 0 0 0 0 0 1:0.0251559 2:0.123946 3:-0.162528 4:0.23723 5:-0.181306 6:-0.662143 7:0.845225 8:-0.509309 9:-0.0824672 10:0.618391 11:0.467101 
-0.004224267825408457 -0 -0 -0 -0 -0 -0 -0 -0 -0 0.004626527171639555 0.03125 0 0 0 0.004046556649051462 0 0 0.01713036086198047 0.03125 0.03125 0.007657576262160262 0 0 0.002032793766278494 0 0 0 0 0.009722020828574058 1:0.0813361 2:-0.658372 3:-0.562422 4:0.419569 5:0.273558 6:-0.313596 7:0.848488 8:-0.675683 9:-0.205689 10:0.0392905 11:0.229007 
-0.03125 -0.03125 -0.03125 -0.03125 -0.03125 -0.03125 -0.03125 -0.03125 -0.03125 -0.03125 -0.03125 0.03125 0.03125 0.03125 0.03125 0.03125 0.03125 0.03125 0.03125 0.03125 0.03125 0.03125 0.03125 0.03125 0.03125 0.03125 0.03125 0.03125 0.03125 0.03125 1:-0.502263 2:0.326784 3:0.413015 4:0.736757 5:0.634189 6:0.170531 7:-0.170269 8:0.0596595 9:0.0145982 10:0.102528 11:-0.253672 
-0.03125 -0.03125 -0.03125 -0.03125 -0.03125 -0.03125 -0.03125 -0.03125 -0.03125 -0.03125 -0.03125 -0.03125 0.03125 0.03125 0.03125 0.03125 0.03125 0.03125 0.03125 0.03125 0.03125 0.03125 0.03125 0.03125 0.03125 0.03125 0.03125 0.03125 0.03125 0.03125 1:0.478359 2:-0.0893564 3:-0.608079 4:-0.0159583 5:1 6:-0.182499 7:0.774653 8:-0.910178 9:0.239522 10:0.398999 11:-0.239021 
-0.03125 -0.03125 -0.03125 -0.03125 -0.03125 -0.03125 -0.03125 -0.03125 -0.03125 -0.03125 -0.03125 -0.03125 -0.03125 0.03125 0.03125 0.03125 0.03125 0.03125 0.03125 0.03125 0.03125 0.03125 0.03125 0.03125 0.03125 0.03125 0.03125 0.03125 0.03125 0.03125 1:-0.753829 2:0.829182 3:0.306547 4:0.447019 5:-0.364475 6:0.765856 7:-0.651071 8:-0.077261 9:0.382115 10:-0.482456 11:0.186994 
-0.03125 -0.03125 -0.03125 -0.03125 -0.03125 -0.03125 -0.03125 -0.03125 -0.03125 -0.03125 -0.03125 -0 -0 -0.03125 0.02959721938298212 0 0.03125 0.03125 0 0.03125 0 0 0.03125 0 0 0 0 0.03125 0 0.03125 1:-0.607658 2:0.564567 3:0.206104 4:0.130587 5:-0.629618 6:-0.560763 7:-0.463606 8:0.42618 9:-0.0342942 10:-0.631173 11:-0.0697764 
-0.03125 -0 -0.03125 -0 -0 -0.03125 -0.03125 -0 -0.03125 -0.03125 -0.03125 -0.03125 -0.03125 -0 0.001652780617017884 0.03125 0 0.03125 0.03125 0.03125 0.03125 0.03125 0.03125 0.03125 0.03125 0.03125 0.03125 0.03125 0.03125 0.03125 1:-0.54507 2:0.673786 3:-0.0743104 4:0.330819 5:0.214044 6:-0.61156 7:-0.267764 8:0.0469351 9:0.615856 10:-0.514622 11:0.798402 
-0.03125 -0.03125 -0.03125 -0.03125 -0.03125 -0.03125 -0.03125 -0.03125 -0.03125 -0.03125 -0.03125 -0.03125 -0.03125 -0.03125 -0.03125 0.03125 0.03125 0.03125 0.03125 0.03125 0.03125 0.03125 0.03125 0.03125 0.03125 0.03125 0.03125 0.03125 0.03125 0.03125 1:-0.809986 2:0.291425 3:-0.408951 4:0.475426 5:-0.882945 6:0.61685 7:-0.744838 8:0.575906 9:0.154157 10:-0.895436 11:0.154542 
-0.03125 -0.03125 -0.03125 -0.03125 -0.03125 -0.03125 -0.03125 -0.03125 -0.03125 -0.03125 -0.03125 -0.03125 -0.03125 -0.03125 -0.03125 -0.03125 0.03125 0.03125 0.03125 0.03125 0.03125 0.03125 0.03125 0.03125 0.03125 0.03125 0.03125 0.03125 0.03125 0.03125 1:0.999466 2:-0.557044 3:-0.582997 4:-0.875864 5:-0.00894004 6:-0.418162 7:0.574726 8:-0.0394176 9:0.131104 10:-0.320617 11:-0.396765 
-0.03125 -0.03125 -0.03125 -0.03125 -0.03125 -0.03125 -0.03125 -0.03125 -0.03125 -0.03125 -0.03125 -0.03125 -0.03125 -0.03125 -0.03125 -0.03125 -0.03125 0.03125 0.03125 0.03125 0.03125 0.03125 0.03125 0.03125 0.03125 0.03125 0.03125 0.03125 0.03125 0.03125 1:0.222767 2:0.336805 3:0.254512 4:-0.492982 5:-0.136735 6:-0.884598 7:-0.149817 8:0.0439545 9:0.184004 10:-0.309853 11:-1 
-0.03125 -0.03125 -0.03125 -0 -0.03125 -0.03125 -0.03125 -0.03125 -0.03125 -0.03125 -0.03125 -0 -0.03125 -0 -0.03125 -0 -0.03125 -0.03125 0 0.03125 0.02231194835648276 0.02061912782516582 0.03125 0.01928732746626402 0.01867515879823237 0 0.02458136358965035 0.03125 0.02091412617492905 0.03125 1:-0.693502 2:0.308492 3:-0.370724 4:0.414779 5:-0.969704 6:-0.619032 7:-0.754824 8:0.415973 9:0.815871 10:0.115899 11:0.0458954 
-0.03125 -0 -0.03125 -0.03125 -0 -0.03125 -0.03125 -0 -0.03125 -0.03125 -0.03125 -0.03125 -0 -0.03125 -0.03125 -0.03125 -0 -0 0.03125 0.03125 0.008938051643517238 0.01063087217483418 0.03125 0.01196267253373598 0.01257484120176763 0.03125 0.006668636410349652 0.03125 0.01033587382507095 0.03125 1:-0.867864 2:-0.187193 3:0.415717 4:0.368588 5:-0.485243 6:0.171544 7:-0.974859 8:-0.37166 9:0.503236 10:-1 11:-0.34346 
-0.03125 -0.03125 -0.03125 -0.03125 -0.03125 -0.03125 -0.03125 -0.03125 -0.03125 -0.03125 -0.03125 -0.03125 -0.03125 -0.03125 -0.03125 -0.03125 -0.03125 -0.03125 -0.03125 0.03125 0.03125 0.03125 0.03125 0.03125 0.03125 0.03125 0.03125 0.03125 0.03125 0.03125 1:-0.0391079 2:0.0523395 3:0.117805 4:0.338572 5:0.253205 6:0.53757 7:1 8:-0.211952 9:-0.30964 10:0.473979 11:0.209302 
-0.03125 -0 -0.03125 -0 -0 -0.03125 -0.03125 -0 -0.03125 -0.03125 -0.03125 -0.03125 -0.03125 -0 -0.03125 -0 -0.01552790999229743 -0 -0.03125 -0 0 0 0.03125 0 0.01533024755193884 0 0 0.03125 0 0.03125 1:-0.306396 2:-1 3:-0.220442 4:0.343654 5:0.558021 6:0.017897 7:0.566642 8:-0.773617 9:-0.239048 10:-0.202748 11:0.280998 
-0.03125 -0.03125 -0.03125 -0.03125 -0.03125 -0.03125 -0.03125 -0.03125 -0.03125 -0.03125 -0.03125 -0 -0 -0.03125 -0.03125 -0.03125 -0.01572209000770257 -0.03125 -0.03125 -0.03125 0.03125 0.03125 0.03125 0.03125 0.01591975244806116 0.03125 0.03125 0.03125 0.03125 0.03125 1:0.320439 2:0.412684 3:0.408734 4:-0.114887 5:-0.354656 6:0.11203 7:0.785578 8:-0.557089 9:-0.00530557 10:0.27338 11:0.654367 
-0.03125 -0.03125 -0.03125 -0.03125 -0.03125 -0.03125 -0.03125 -0.03125 -0.03125 -0.03125 -0.03125 -0.03125 -0.03125 -0.03125 -0.03125 -0.03125 -0.03125 -0.03125 -0.03125 -0.03125 -0.03125 0.03125 0.03125 0.03125 0.03125 0.03125 0.03125 0.03125 0.03125 0.03125 1:1 2:-0.0553699 3:-0.0945686 4:-1 5:-0.14094 6:-0.558206 7:0.512239 8:-0.911864 9:0.159486 10:0.502503 11:0.292592 
-0.03125 -0.03125 -0.03125 -0.03125 -0.03125 -0.03125 -0.03125 -0.03125 -0.03125 -0.03125 -0.03125 -0.03125 -0.03125 -0.03125 -0.03125 -0.03125 -0.03125 -0.03125 -0.03125 -0.03125 -0.03125 -0.03125 0.03125 0.03125 0.03125 0.03125 0.03125 0.03125 0.03125 0.03125 1:-0.698565 2:0.4774 3:-0.0292886 4:0.928867 5:-0.581861 6:0.36409 7:-0.0929857 8:-0.323249 9:0.595588 10:0.0683854 11:0.97692 
-0.03125 -0.03125 -0.03125 -0.03125 -0.03125 -0.03125 -0.03125 -0 -0.03125 -0.03125 -0.03125 -0 -0 -0.03125 -0.03125 -0.03125 -0 -0 -0.03125 -0 -0.03125 -0 -0.03125 0 0 0 0 0.03125 0 0.03125 1:-0.687588 2:0.924562 3:0.138132 4:0.411799 5:-0.570091 6:-0.0947164 7:-0.526325 8:0.0936492 9:-0.0744931 10:-0.669912 11:0.552545 
-0.03125 -0 -0.03125 -0 -0 -0.03125 -0.03125 -0.03125 -0.03125 -0.03125 -0.03125 -0.03125 -0.03125 -0 -0.03125 -0 -0.03125 -0.03125 -0.03125 -0.03125 -0.03125 -0.03125 -0 0.03125 0.03125 0.03125 0.03125 0.03125 0.03125 0.03125 1:-0.315891 2:0.718562 3:1 4:0.427389 5:-0.335403 6:-0.121075 7:-0.285515 8:-0.162464 9:0.556214 10:-0.313739 11:0.443769 
-0.03125 -0.03125 -0.03125 -0.03125 -0.03125 -0.03125 -0.03125 -0.03125 -0.03125 -0.03125 -0.03125 -0.03125 -0.03125 -0.03125 -0.03125 -0.03125 -0.03125 -0.03125 -0.03125 -0.03125 -0.03125 -0.03125 -0.03125 -0.03125 0.03125 0.03125 0.03125 0.03125 0.03125 0.03125 1:0.224306 2:0.729443 3:0.383954 4:-0.420994 5:-0.335624 6:-0.452071 7:-0.127264 8:-0.0932671 9:0.397624 10:-0.201603 11:-0.0619407 
-0.03125 -0.03125 -0.03125 -0.03125 -0.03125 -0.03125 -0.03125 -0.03125 -0.03125 -0.03125 -0.03125 -0.03125 -0.03125 -0.03125 -0.03125 -0.03125 -0.03125 -0.03125 -0.03125 -0.03125 -0.03125 -0.03125 -0.03125 -0.03125 -0.03125 0.03125 0.03125 0.03125 0.03125 0.03125 1:-0.495266 2:-0.0417737 3:-0.549933 4:0.250174 5:-0.71594 6:0.0958539 7:-0.469702 8:0.477288 9:0.338507 10:-0.799074 11:0.501797 
-0.03125 -0.03125 -0.03125 -0.03125 -0.03125 -0.03125 -0.03125 -0.03125 -0.03125 -0.03125 -0.03125 -0.03125 -0.03125 -0.03125 -0.03125 -0.03125 -0.03125 -0.03125 -0.03125 -0.03125 -0.03125 -0.03125 -0.03125 -0.03125 -0.03125 -0.03125 0.03125 0.03125 0.03125 0.03125 1:-0.578382 2:0.625844 3:0.193998 4:0.300816 5:-0.840079 6:0.57827 7:-0.481674 8:0.324648 9:0.0961325 10:-0.704748 11:0.445328 
-0.03125 -0.03125 -0.03125 -0.03125 -0.03125 -0.03125 -0.03125 -0.03125 -0.03125 -0.03125 -0.03125 -0.03125 -0.03125 -0.03125 -0.03125 -0.03125 -0.03125 -0.03125 -0.03125 -0.03125 -0.03125 -0.03125 -0.03125 -0.03125 -0.03125 -0.03125 -0.03125 0.03125 0.03125 0.03125 1:0.53433 2:-0.0798684 3:-0.503359 4:-0.721243 5:-0.785088 6:-0.838052 7:-0.0736597 8:-0.0960151 9:1 10:-0.649641 11:0.274319 
-0.03125 -0 -0.03125 -0 -0 -0.03125 -0.03125 -0 -0.03125 -0.03125 -0.03125 -0 -0 -0 -0.03125 -0 -0 -0 -0.03125 -0 -0.03125 -0 -0 -0.03125 -0 -0 -0 -0 0 0.03125 1:-1 2:0.947459 3:-0.18917 4:0.326425 5:-1 6:-0.870958 7:-0.34456 8:1 9:-1 10:-0.434371 11:1 
-0.03125 -0.03125 -0.03125 -0.03125 -0.03125 -0.03125 -0.03125 -0.03125 -0.03125 -0.03125 -0.03125 -0.03125 -0.03125 -0.03125 -0.03125 -0.03125 -0.03125 -0.03125 -0.03125 -0.03125 -0.03125 -0.03125 -0.03125 -0.03125 -0.03125 -0.03125 -0.03125 -0.03125 0.03125 0.03125 1:-0.381851 2:0.754729 3:-0.0382804 4:0.534953 5:-0.597696 6:0.28896 7:-0.26986 8:0.511847 9:0.224862 10:-0.698685 11:0.95428 
-0.03125 -0.03125 -0.03125 -0.03125 -0.03125 -0.03125 -0.03125 -0.03125 -0.03125 -0.03125 -0.03125 -0.03125 -0.03125 -0.03125 -0.03125 -0.03125 -0.03125 -0.03125 -0.03125 -0.03125 -0.03125 -0.03125 -0.03125 -0.03125 -0.03125 -0.03125 -0.03125 -0.03125 -0.03125 0.03125 1:-0.796539 2:0.988511 3:0.607 4:0.60959 5:-0.495363 6:-0.922912 7:-0.662846 8:0.130856 9:0.000619726 10:-0.284696 11:0.168121 
-0.03125 -0 -0.03125 -0.008454488359264366 -0 -0.03125 -0.03125 -0.03125 -0.03125 -0.03125 -0.03125 -0.01039423637766745 -0.03125 -0 -0.03125 -0 -0.03125 -0.01291610433617492 -0.03125 -0.01988603570218761 -0.03125 -0.03125 -0.009806227924819784 -0.03125 -0.01208481265359579 -0.008304196432873832 -0 -0.01838974663392833 -0.03125 -0 1:0.516588 2:-0.25034 3:-1 4:-0.545757 5:0.337044 6:-0.563636 7:0.633769 8:-0.463225 9:0.864327 10:0.547705 11:0.13404 
-0.03125 -0.03125 -0.03125 -0.02279551164073564 -0.03125 -0.03125 -0.03125 -0 -0.03125 -0.03125 -0.03125 -0.02085576362233255 -0 -0.03125 -0.03125 -0.03125 -0 -0.01833389566382508 -0.03125 -0.01136396429781239 -0.03125 -0 -0.02144377207518022 -0.03125 -0.01916518734640421 -0.02294580356712617 -0.03125 -0.01286025336607167 -0.03125 -0.03125 1:-0.65691 2:0.913632 3:0.375695 4:0.404313 5:-0.640001 6:-0.418649 7:-0.571975 8:0.30641 9:0.396672 10:-0.940825 11:-0.16632 
